{"learner":{"attributes":{"best_iteration":"3","best_ntree_limit":"4","scikit_learn":"{\"n_estimators\": 4, \"objective\": \"rank:pairwise\", \"max_depth\": 6, \"learning_rate\": 0.1, \"verbosity\": null, \"booster\": null, \"tree_method\": null, \"gamma\": 1.0, \"min_child_weight\": 0.1, \"max_delta_step\": null, \"subsample\": null, \"colsample_bytree\": null, \"colsample_bylevel\": null, \"colsample_bynode\": null, \"reg_alpha\": null, \"reg_lambda\": null, \"scale_pos_weight\": null, \"base_score\": null, \"missing\": NaN, \"num_parallel_tree\": null, \"random_state\": null, \"n_jobs\": null, \"monotone_constraints\": null, \"interaction_constraints\": null, \"importance_type\": null, \"gpu_id\": null, \"validate_parameters\": null, \"predictor\": null, \"enable_categorical\": false, \"evals_result_\": {\"validation_0\": {\"map\": [0.308397, 0.316017, 0.325256, 0.326619]}}, \"_estimator_type\": \"ranker\"}"},"feature_names":["site_id","visitor_location_country_id","prop_country_id","prop_id","prop_starrating","prop_review_score","prop_brand_bool","prop_location_score2","prop_log_historical_price","promotion_flag","srch_destination_id","srch_length_of_stay","srch_booking_window","srch_adults_count","srch_children_count","srch_room_count","srch_saturday_night_bool","srch_query_affinity_score","orig_destination_distance","random_bool","year","month","comp_rate","comp_inv","comp_rate_percent_diff","usd_diff","starrating_diff"],"feature_types":["int","int","int","int","int","float","int","float","float","int","int","int","int","int","int","int","int","float","float","int","int","int","float","float","float","float","float"],"gradient_booster":{"model":{"gbtree_model_param":{"num_trees":"4","size_leaf_vector":"0"},"tree_info":[0,0,0,0],"trees":[{"base_weights":[-0E0,-2.6146975E-1,1.6356663E-1,-3.1727964E-1,-4.2232748E-2,2.2006854E-1,-4.2279884E-2,-3.827228E-1,-1.800413E-1,-1.2825723E-1,5.5615343E-2,1.1033058E-1,2.9611138E-1,3.255362E-2,-2.1608332E-1,-4.4273502E-1,-2.7772355E-1,-2.2964989E-1,-7.409121E-2,-9.8683216E-2,-3.543212E-1,1.1820987E-1,-6.931614E-2,5.0183006E-2,2.5691012E-1,5.5700153E-2,3.248598E-1,-1.0100342E-1,7.39499E-2,-1.5130551E-1,-3.0424142E-1,-5.6187445E-1,-3.950623E-1,-3.902631E-1,-2.3264192E-1,-3.5004738E-1,-1.9473742E-1,-2.1906617E-1,-3.2912094E-2,-2.6728684E-1,-5.8984514E-2,-4.592088E-1,-2.2404371E-1,-6.0738567E-2,1.5843073E-1,-2.4598425E-2,-1.54646E-1,-1.168421E-1,1.0107831E-1,1.22784026E-1,2.7585587E-1,7.6949755E-3,2.1074648E-1,3.6889872E-1,2.0669577E-1,-1.7945157E-1,-9.53994E-3,5.5964574E-2,2.465531E-1,-2.0659952E-1,3.6051432E-3,-4.0378883E-1,-2.1489242E-1,-6.886954E-1,-5.29559E-1,-3.3066872E-1,-4.953019E-1,-4.165451E-1,-2.827455E-1,-1.5251304E-1,-2.9427472E-1,-4.0421268E-1,-2.7992374E-1,-1.5728074E-1,-2.918665E-1,-4.2635658E-1,-2.0461428E-1,2.85154E-2,-9.6022435E-2,-3.102331E-1,-1.4237502E-1,-1.2538405E-1,-1.3715027E-2,-4.7991818E-1,-7.791018E-2,-2.1118681E-1,-9.721254E-1,3.4536082E-1,-8.4246024E-2,5.891142E-2,2.2928947E-1,-1.14957444E-1,6.492367E-2,2.118285E-2,-1.9253388E-1,-2.0448878E-1,-6.790068E-2,4.5150403E-2,1.8824373E-1,2.0975575E-1,3.595442E-2,3.161406E-1,1.8954402E-1,-3.0816782E-1,2.9923726E-2,2.4840738E-1,3.7443638E-2,3.1586593E-1,4.717559E-1,8.8532194E-2,2.778057E-1,-3.445273E-1,-1.413092E-1,-1.9109142E-1,1.0904959E-2,1.0076007E-1,-7.766944E-3,1.0058228E-1,2.918265E-1,-2.4813788E-1,-1.2974349E-1,-7.211641E-2,1.1001955E-1,-4.2511696E-1,7.76663E-2,-3.2345268E-1,-9.4277605E-2],"categories":[],"categories_nodes":[],"categories_segments":[],"categories_sizes":[],"default_left":[true,true,true,true,true,true,true,true,true,true,true,true,true,true,true,true,true,true,true,true,true,true,true,true,true,true,true,true,true,true,true,true,true,true,true,true,true,true,true,true,true,true,true,true,true,true,true,true,true,true,true,true,true,true,true,true,true,true,true,true,true,true,true,false,false,false,false,false,false,false,false,false,false,false,false,false,false,false,false,false,false,false,false,false,false,false,false,false,false,false,false,false,false,false,false,false,false,false,false,false,false,false,false,false,false,false,false,false,false,false,false,false,false,false,false,false,false,false,false,false,false,false,false,false,false,false,false],"id":0,"left_children":[1,3,5,7,9,11,13,15,17,19,21,23,25,27,29,31,33,35,37,39,41,43,45,47,49,51,53,55,57,59,61,63,65,67,69,71,73,75,77,79,81,83,85,87,89,91,93,95,97,99,101,103,105,107,109,111,113,115,117,119,121,123,125,-1,-1,-1,-1,-1,-1,-1,-1,-1,-1,-1,-1,-1,-1,-1,-1,-1,-1,-1,-1,-1,-1,-1,-1,-1,-1,-1,-1,-1,-1,-1,-1,-1,-1,-1,-1,-1,-1,-1,-1,-1,-1,-1,-1,-1,-1,-1,-1,-1,-1,-1,-1,-1,-1,-1,-1,-1,-1,-1,-1,-1,-1,-1,-1],"loss_changes":[1.6970023E5,1.8683555E4,2.8390203E4,1.0931477E4,2.6080537E3,1.5982359E4,6.8375728E3,5.193E3,2.0656123E3,1.1023132E3,1.1335994E3,6.9115537E3,7.8189844E3,2.0317515E3,9.035332E2,2.978289E3,1.5205859E3,1.1250508E3,7.482175E2,9.759407E2,2.6054053E2,6.950969E2,1.8462918E2,4.7252246E3,5.7956836E2,8.993727E2,5.2582812E3,6.238947E2,8.7085657E2,7.812676E2,5.9599756E2,6.1383594E2,2.4174492E3,2.4212402E2,1.0568438E3,2.284253E2,7.54875E2,8.296802E1,3.784026E2,1.490271E2,3.5475894E2,8.339673E1,8.163922E1,1.6922406E2,5.560327E2,2.5683728E2,1.10842804E2,5.5685803E2,2.0769087E3,2.1319638E2,6.9485547E2,6.478445E2,1.8644336E2,4.0152734E3,2.30525E3,2.9466272E2,1.490198E2,7.2532007E2,1.7491992E2,2.145564E2,1.933443E2,3.2553027E2,4.6244873E2,0E0,0E0,0E0,0E0,0E0,0E0,0E0,0E0,0E0,0E0,0E0,0E0,0E0,0E0,0E0,0E0,0E0,0E0,0E0,0E0,0E0,0E0,0E0,0E0,0E0,0E0,0E0,0E0,0E0,0E0,0E0,0E0,0E0,0E0,0E0,0E0,0E0,0E0,0E0,0E0,0E0,0E0,0E0,0E0,0E0,0E0,0E0,0E0,0E0,0E0,0E0,0E0,0E0,0E0,0E0,0E0,0E0,0E0,0E0,0E0,0E0,0E0,0E0,0E0],"parents":[2147483647,0,0,1,1,2,2,3,3,4,4,5,5,6,6,7,7,8,8,9,9,10,10,11,11,12,12,13,13,14,14,15,15,16,16,17,17,18,18,19,19,20,20,21,21,22,22,23,23,24,24,25,25,26,26,27,27,28,28,29,29,30,30,31,31,32,32,33,33,34,34,35,35,36,36,37,37,38,38,39,39,40,40,41,41,42,42,43,43,44,44,45,45,46,46,47,47,48,48,49,49,50,50,51,51,52,52,53,53,54,54,55,55,56,56,57,57,58,58,59,59,60,60,61,61,62,62],"right_children":[2,4,6,8,10,12,14,16,18,20,22,24,26,28,30,32,34,36,38,40,42,44,46,48,50,52,54,56,58,60,62,64,66,68,70,72,74,76,78,80,82,84,86,88,90,92,94,96,98,100,102,104,106,108,110,112,114,116,118,120,122,124,126,-1,-1,-1,-1,-1,-1,-1,-1,-1,-1,-1,-1,-1,-1,-1,-1,-1,-1,-1,-1,-1,-1,-1,-1,-1,-1,-1,-1,-1,-1,-1,-1,-1,-1,-1,-1,-1,-1,-1,-1,-1,-1,-1,-1,-1,-1,-1,-1,-1,-1,-1,-1,-1,-1,-1,-1,-1,-1,-1,-1,-1,-1,-1,-1],"split_conditions":[3.035E-2,5E-1,1.94525E2,7.65E-3,7.15E-3,1.1005E-1,2.99165E2,5E-1,5E-1,2.17515E2,1.3801001E2,5E-1,3.25E0,3.5E0,3.9201E2,2.5E0,2.355E0,2.5E0,2.5E0,2.5E0,5E-1,2.5E0,2.3433499E2,2.5E0,2.5E0,5E-1,1.39305E2,5.325E0,6.0150003E0,6.0150003E0,2.5E0,5E-1,1.34405E2,1.45E1,1.16965E2,1.8849999E-2,1.69725E2,8.75E-3,1.3529999E2,3.75E0,2.115E2,8.65E1,-3.556295E1,1.1940001E1,2.155E2,5.375E0,2.1409E4,3.25E0,3.5E0,8.5E0,1.27015E2,1.5E0,1.1916E3,3.99E0,3.91E0,2.5E0,5.305E-2,2.39055E2,1.15E1,5E-1,3.5E0,1.812625E3,6.0950003E0,-6.886954E-2,-5.2955903E-2,-3.3066873E-2,-4.953019E-2,-4.165451E-2,-2.8274551E-2,-1.5251304E-2,-2.9427473E-2,-4.042127E-2,-2.7992373E-2,-1.5728075E-2,-2.9186651E-2,-4.263566E-2,-2.0461429E-2,2.85154E-3,-9.602244E-3,-3.1023309E-2,-1.4237503E-2,-1.2538405E-2,-1.3715028E-3,-4.799182E-2,-7.7910176E-3,-2.1118682E-2,-9.7212546E-2,3.4536082E-2,-8.424602E-3,5.891142E-3,2.2928948E-2,-1.1495745E-2,6.4923665E-3,2.118285E-3,-1.9253388E-2,-2.0448878E-2,-6.790068E-3,4.51504E-3,1.8824374E-2,2.0975575E-2,3.595442E-3,3.161406E-2,1.8954402E-2,-3.0816782E-2,2.9923727E-3,2.4840739E-2,3.7443638E-3,3.1586595E-2,4.717559E-2,8.853219E-3,2.7780568E-2,-3.4452733E-2,-1.413092E-2,-1.9109143E-2,1.090496E-3,1.0076008E-2,-7.766944E-4,1.0058228E-2,2.9182648E-2,-2.4813788E-2,-1.2974349E-2,-7.2116414E-3,1.1001955E-2,-4.2511698E-2,7.76663E-3,-3.234527E-2,-9.427761E-3],"split_indices":[7,9,25,7,7,7,25,19,19,25,25,9,5,4,25,4,26,4,4,4,19,4,25,4,4,9,25,8,8,8,11,4,25,0,25,7,25,7,25,5,2,24,17,18,2,8,3,5,4,12,25,4,18,26,26,4,7,25,12,19,11,25,8,0,0,0,0,0,0,0,0,0,0,0,0,0,0,0,0,0,0,0,0,0,0,0,0,0,0,0,0,0,0,0,0,0,0,0,0,0,0,0,0,0,0,0,0,0,0,0,0,0,0,0,0,0,0,0,0,0,0,0,0,0,0,0,0],"split_type":[0,0,0,0,0,0,0,0,0,0,0,0,0,0,0,0,0,0,0,0,0,0,0,0,0,0,0,0,0,0,0,0,0,0,0,0,0,0,0,0,0,0,0,0,0,0,0,0,0,0,0,0,0,0,0,0,0,0,0,0,0,0,0,0,0,0,0,0,0,0,0,0,0,0,0,0,0,0,0,0,0,0,0,0,0,0,0,0,0,0,0,0,0,0,0,0,0,0,0,0,0,0,0,0,0,0,0,0,0,0,0,0,0,0,0,0,0,0,0,0,0,0,0,0,0,0,0],"sum_hessian":[3.967949E6,1.5269845E6,2.4409645E6,1.217143E6,3.098415E5,1.9152545E6,5.2571E5,8.241425E5,3.930005E5,1.648825E5,1.44959E5,7.83943E5,1.1313115E6,3.67485E5,1.58225E5,5.24412E5,2.997305E5,2.676695E5,1.25331E5,1.45809E5,1.90735E4,9.6573E4,4.8386E4,5.558545E5,2.280885E5,1.208335E5,1.010478E6,8.69515E4,2.805335E5,9.12085E4,6.70165E4,1.49867E5,3.74545E5,8.57245E4,2.14006E5,6.0168E4,2.075015E5,2.77235E4,9.76075E4,2.77875E4,1.180215E5,1.0565E4,8.5085E3,1.77225E4,7.88505E4,3.1749E4,1.6637E4,1.298195E5,4.26035E5,2.82315E4,1.99857E5,9.2267E4,2.85665E4,7.361265E5,2.743515E5,4.68055E4,4.0146E4,2.540615E5,2.6472E4,6.7216E4,2.39925E4,3.16975E4,3.5319E4,3.0429E4,1.19438E5,2.280505E5,1.464945E5,6.88835E4,1.6841E4,9.30435E4,1.209625E5,3.3944E4,2.6224E4,1.497535E5,5.7748E4,1.805E3,2.59185E4,4.94635E4,4.8144E4,2.0677E4,7.1105E3,4.7844E4,7.01775E4,1.00205E4,5.445E2,8.366E3,1.425E2,9.69E2,1.67535E4,3.2794E4,4.60565E4,1.58005E4,1.59485E4,2.9495E3,1.36875E4,4.6515E4,8.33045E4,2.595205E5,1.665145E5,1.41035E4,1.4128E4,1.36258E5,6.3599E4,6.0655E3,8.62015E4,2.34665E4,5.1E3,4.857035E5,2.50423E5,1.030745E5,1.71277E5,8.7835E3,3.8022E4,4.0625E3,3.60835E4,1.49195E5,1.048665E5,6.2675E3,2.02045E4,4.3632E4,2.3584E4,1.4018E4,9.9745E3,3.0353E4,1.3445E3,1.85875E4,1.67315E4],"tree_param":{"num_deleted":"0","num_feature":"27","num_nodes":"127","size_leaf_vector":"0"}},{"base_weights":[-2.3012816E-9,-2.5080153E-1,1.5688023E-1,-3.039411E-1,-4.203845E-2,2.129997E-1,-3.5551812E-2,-3.6703777E-1,-1.7173472E-1,-1.2529717E-1,5.2714717E-2,9.093241E-2,2.7642745E-1,3.3787936E-2,-2.0776545E-1,-4.2424795E-1,-2.669546E-1,-2.1848565E-1,-7.186117E-2,-9.698578E-2,-3.4341317E-1,1.1316244E-1,-6.7966364E-2,3.237277E-2,2.3751935E-1,1.0521944E-1,3.1329572E-1,-9.652404E-2,7.511518E-2,-1.45647E-1,-2.9232502E-1,-5.3776354E-1,-3.788832E-1,-3.735598E-1,-2.242343E-1,-3.3338067E-1,-1.851401E-1,-2.0846653E-1,-3.311384E-2,-2.5799328E-1,-5.9116706E-2,-4.4891518E-1,-2.1312287E-1,-5.87875E-2,1.5180187E-1,-1.8028215E-2,-1.4144956E-1,-2.4329267E-2,1.683518E-1,6.2066033E-2,2.5629264E-1,3.899999E-2,2.2079547E-1,3.678045E-1,2.2244379E-1,-1.7145379E-1,-6.1999583E-3,5.914797E-2,2.3658662E-1,-1.9847998E-1,2.5805063E-3,-3.8911033E-1,-2.0562598E-1,-6.5743756E-1,-5.072651E-1,-3.1700477E-1,-4.7521117E-1,-2.336178E-1,-3.9217773E-1,-1.3863188E-1,-2.779659E-1,-5.0475097E-1,-3.1154636E-1,-1.356353E-1,-2.5687614E-1,-4.0403563E-1,-1.9484796E-1,2.615508E-2,-9.40739E-2,-2.7497336E-1,3.8565043E-2,-7.1674176E-2,1.6309135E-1,-4.6922293E-1,-7.364842E-2,-2.0136152E-1,-9.112131E-1,-1.9806407E-2,-2.9969034E-1,5.910301E-2,2.17848E-1,-7.999913E-2,1.1995474E-1,-2.1865726E-1,-6.744199E-2,-1.23204455E-1,2.547888E-2,2.1961711E-1,3.9961193E-2,1.7396636E-2,2.1048531E-1,2.9032663E-1,1.7441188E-1,-8.495278E-2,1.0173928E-1,6.4122E-2,3.20687E-1,3.1943613E-1,4.5405692E-1,1.1856E-1,2.8886154E-1,-3.2475358E-1,-1.3569915E-1,-1.5428378E-1,1.8660966E-2,1.0108236E-1,-7.471857E-3,1.8078296E-1,3.4516242E-1,-2.380984E-1,-1.2524694E-1,-4.381263E-2,1.5430132E-1,-4.0768513E-1,1.2618329E-1,-3.0953717E-1,-9.047411E-2],"categories":[],"categories_nodes":[],"categories_segments":[],"categories_sizes":[],"default_left":[true,true,true,true,true,true,true,true,true,true,true,true,true,true,true,true,true,true,true,true,true,true,true,true,true,true,true,true,true,true,true,true,true,true,true,true,true,true,true,true,true,true,true,true,true,true,true,true,true,true,true,true,true,true,true,true,true,true,true,true,true,true,true,false,false,false,false,false,false,false,false,false,false,false,false,false,false,false,false,false,false,false,false,false,false,false,false,false,false,false,false,false,false,false,false,false,false,false,false,false,false,false,false,false,false,false,false,false,false,false,false,false,false,false,false,false,false,false,false,false,false,false,false,false,false,false,false],"id":1,"left_children":[1,3,5,7,9,11,13,15,17,19,21,23,25,27,29,31,33,35,37,39,41,43,45,47,49,51,53,55,57,59,61,63,65,67,69,71,73,75,77,79,81,83,85,87,89,91,93,95,97,99,101,103,105,107,109,111,113,115,117,119,121,123,125,-1,-1,-1,-1,-1,-1,-1,-1,-1,-1,-1,-1,-1,-1,-1,-1,-1,-1,-1,-1,-1,-1,-1,-1,-1,-1,-1,-1,-1,-1,-1,-1,-1,-1,-1,-1,-1,-1,-1,-1,-1,-1,-1,-1,-1,-1,-1,-1,-1,-1,-1,-1,-1,-1,-1,-1,-1,-1,-1,-1,-1,-1,-1,-1],"loss_changes":[1.5606925E5,1.6933133E4,2.6352328E4,1.0149289E4,2.4432625E3,1.4627383E4,6.579243E3,4.715703E3,1.8353379E3,1.01794775E3,1.0566974E3,5.5453623E3,7.8474844E3,2.1154531E3,8.3072314E2,2.6984375E3,1.3641914E3,1.0257354E3,6.633963E2,8.896454E2,2.6023608E2,6.4124E2,1.773947E2,3.5590981E3,6.073799E2,1.6859309E3,5.065836E3,6.401182E2,7.688944E2,7.1406335E2,5.6196094E2,5.4578906E2,2.2316406E3,2.2319531E2,9.836426E2,2.2519385E2,7.369287E2,7.368213E1,3.527801E2,1.3991785E2,3.2963873E2,7.970996E1,6.940735E1,1.6629306E2,4.824574E2,2.4613406E2,1.117493E2,1.6043219E3,8.9409033E2,1.1817373E2,4.641621E2,1.0891218E3,1.255761E3,2.6671719E3,2.646707E3,2.8330957E2,1.57888E2,7.5818207E2,1.6253772E2,1.9500342E2,1.6866115E2,3.0296777E2,4.227517E2,0E0,0E0,0E0,0E0,0E0,0E0,0E0,0E0,0E0,0E0,0E0,0E0,0E0,0E0,0E0,0E0,0E0,0E0,0E0,0E0,0E0,0E0,0E0,0E0,0E0,0E0,0E0,0E0,0E0,0E0,0E0,0E0,0E0,0E0,0E0,0E0,0E0,0E0,0E0,0E0,0E0,0E0,0E0,0E0,0E0,0E0,0E0,0E0,0E0,0E0,0E0,0E0,0E0,0E0,0E0,0E0,0E0,0E0,0E0,0E0,0E0,0E0,0E0,0E0],"parents":[2147483647,0,0,1,1,2,2,3,3,4,4,5,5,6,6,7,7,8,8,9,9,10,10,11,11,12,12,13,13,14,14,15,15,16,16,17,17,18,18,19,19,20,20,21,21,22,22,23,23,24,24,25,25,26,26,27,27,28,28,29,29,30,30,31,31,32,32,33,33,34,34,35,35,36,36,37,37,38,38,39,39,40,40,41,41,42,42,43,43,44,44,45,45,46,46,47,47,48,48,49,49,50,50,51,51,52,52,53,53,54,54,55,55,56,56,57,57,58,58,59,59,60,60,61,61,62,62],"right_children":[2,4,6,8,10,12,14,16,18,20,22,24,26,28,30,32,34,36,38,40,42,44,46,48,50,52,54,56,58,60,62,64,66,68,70,72,74,76,78,80,82,84,86,88,90,92,94,96,98,100,102,104,106,108,110,112,114,116,118,120,122,124,126,-1,-1,-1,-1,-1,-1,-1,-1,-1,-1,-1,-1,-1,-1,-1,-1,-1,-1,-1,-1,-1,-1,-1,-1,-1,-1,-1,-1,-1,-1,-1,-1,-1,-1,-1,-1,-1,-1,-1,-1,-1,-1,-1,-1,-1,-1,-1,-1,-1,-1,-1,-1,-1,-1,-1,-1,-1,-1,-1,-1,-1,-1,-1,-1],"split_conditions":[3.035E-2,5E-1,1.89025E2,7.65E-3,7.15E-3,9.315E-2,2.99165E2,5E-1,5E-1,2.18035E2,1.3801001E2,5E-1,2.5E0,3.5E0,3.9201E2,2.5E0,2.355E0,2.5E0,2.5E0,2.5E0,5E-1,2.5E0,2.1863501E2,3.5E0,3.25E0,2.5555E-1,1.27465E2,5.325E0,6.0150003E0,6.0150003E0,2.5E0,5E-1,1.34405E2,4.8725E1,1.09604996E2,5E-1,1.3911499E2,8.75E-3,1.3529999E2,6.85E1,8.15E1,8.65E1,-3.556295E1,2.48175E4,2.155E2,5.535E0,5.8050003E0,2.5E0,1.49245E2,7.505E-2,1.27384995E2,3.25E0,5E-1,3.75E0,3.5E0,2.5E0,6.425E-2,2.39055E2,1.562125E3,5E-1,1.85E1,3.188595E3,6.0950003E0,-6.574376E-2,-5.072651E-2,-3.1700477E-2,-4.7521118E-2,-2.336178E-2,-3.9217774E-2,-1.3863188E-2,-2.779659E-2,-5.04751E-2,-3.1154636E-2,-1.35635305E-2,-2.5687614E-2,-4.0403564E-2,-1.9484796E-2,2.6155082E-3,-9.40739E-3,-2.7497336E-2,3.8565043E-3,-7.1674176E-3,1.6309135E-2,-4.6922293E-2,-7.3648426E-3,-2.0136153E-2,-9.112131E-2,-1.9806407E-3,-2.9969035E-2,5.910301E-3,2.1784801E-2,-7.999913E-3,1.1995475E-2,-2.1865726E-2,-6.7441994E-3,-1.2320446E-2,2.547888E-3,2.1961711E-2,3.9961194E-3,1.7396637E-3,2.1048531E-2,2.9032663E-2,1.7441189E-2,-8.495278E-3,1.0173928E-2,6.4122E-3,3.20687E-2,3.1943616E-2,4.5405693E-2,1.1856E-2,2.8886154E-2,-3.247536E-2,-1.3569916E-2,-1.5428378E-2,1.8660966E-3,1.0108236E-2,-7.471857E-4,1.8078296E-2,3.451624E-2,-2.380984E-2,-1.2524694E-2,-4.381263E-3,1.5430132E-2,-4.0768515E-2,1.2618328E-2,-3.0953718E-2,-9.04741E-3],"split_indices":[7,9,25,7,7,7,25,19,19,25,25,9,4,4,25,4,26,4,4,4,19,4,25,4,5,7,25,8,8,8,11,4,25,25,25,4,25,7,25,24,24,24,17,10,2,8,8,4,25,7,25,5,6,26,26,4,7,25,18,19,0,25,8,0,0,0,0,0,0,0,0,0,0,0,0,0,0,0,0,0,0,0,0,0,0,0,0,0,0,0,0,0,0,0,0,0,0,0,0,0,0,0,0,0,0,0,0,0,0,0,0,0,0,0,0,0,0,0,0,0,0,0,0,0,0,0,0],"split_type":[0,0,0,0,0,0,0,0,0,0,0,0,0,0,0,0,0,0,0,0,0,0,0,0,0,0,0,0,0,0,0,0,0,0,0,0,0,0,0,0,0,0,0,0,0,0,0,0,0,0,0,0,0,0,0,0,0,0,0,0,0,0,0,0,0,0,0,0,0,0,0,0,0,0,0,0,0,0,0,0,0,0,0,0,0,0,0,0,0,0,0,0,0,0,0,0,0,0,0,0,0,0,0,0,0,0,0,0,0,0,0,0,0,0,0,0,0,0,0,0,0,0,0,0,0,0,0],"sum_hessian":[3.9666028E6,1.5263901E6,2.4402125E6,1.2166881E6,3.0970203E5,1.8892464E6,5.509662E5,8.2361075E5,3.9307738E5,1.6484977E5,1.4485228E5,6.460054E5,1.243241E6,3.928077E5,1.5815848E5,5.2404794E5,2.995628E5,2.6774462E5,1.2533275E5,1.4591188E5,1.8937879E4,9.6511086E4,4.83412E4,4.6160228E5,1.8440308E5,2.2028589E5,1.0229551E6,9.457981E4,2.9822788E5,9.117961E4,6.6978875E4,1.4962711E5,3.744208E5,8.569923E4,2.138636E5,6.0225027E4,2.075196E5,2.7693559E4,9.7639195E4,2.77827E4,1.1812918E5,1.0463035E4,8.474845E3,1.7707986E4,7.88031E4,2.8782357E4,1.9558842E4,3.2576288E5,1.3583939E5,1.7824184E4,1.6657889E5,1.4004706E5,8.023883E4,6.3935544E5,3.8359966E5,5.1694734E4,4.2885074E4,2.713924E5,2.683546E4,6.721995E4,2.3959658E4,3.164685E4,3.5332023E4,3.0383477E4,1.1924364E5,2.2797816E5,1.4644266E5,1.0064299E4,7.563493E4,8.247393E4,1.3138966E5,6.803611E3,5.3421414E4,1.2278737E5,8.4732234E4,1.8010436E3,2.5892516E4,4.9506582E4,4.8132613E4,2.6278158E4,1.5045404E3,1.11811164E5,6.31802E3,9.925652E3,5.3738196E2,8.335694E3,1.3915054E2,1.5242621E4,2.4653645E3,3.2786953E4,4.6016145E4,1.9862244E4,8.920112E3,9.571504E3,9.987338E3,1.0912838E5,2.166345E5,9.707673E4,3.876266E4,1.3701571E4,4.1226123E3,1.1766749E5,4.8911402E4,4.7063766E4,9.2983305E4,3.1240984E4,4.8997844E4,4.0964225E5,2.2971319E5,1.496053E5,2.3399438E5,9.775162E3,4.1919574E4,6.1640103E3,3.6721066E4,1.6655345E5,1.04838945E5,1.77271E4,9.108361E3,4.361978E4,2.3600166E4,1.8349473E4,5.610184E3,3.0545967E4,1.1008818E3,1.8571611E4,1.676041E4],"tree_param":{"num_deleted":"0","num_feature":"27","num_nodes":"127","size_leaf_vector":"0"}},{"base_weights":[1.6922806E-9,-2.406313E-1,1.5045631E-1,-2.9150924E-1,-4.0974278E-2,2.1374127E-1,-9.171782E-3,-3.524125E-1,-1.6391012E-1,-1.2168417E-1,5.081607E-2,3.7002042E-2,2.5729918E-1,4.7597736E-2,-2.0093909E-1,-4.070825E-1,-2.5690126E-1,-2.0825806E-1,-6.931018E-2,-8.4900446E-2,-2.7886626E-1,1.0937955E-1,-6.6150144E-2,-4.322659E-2,1.5952241E-1,1.4327295E-1,3.1674203E-1,-7.27556E-2,9.474307E-2,-1.4100043E-1,-2.8252444E-1,-5.157943E-1,-3.636693E-1,-3.592859E-1,-2.1590054E-1,-2.5242737E-1,-1.289344E-1,-2.0022279E-1,-3.219388E-2,-2.4473265E-1,-4.354167E-2,-3.563942E-1,-1.7232326E-1,-5.6466598E-2,1.4662442E-1,-2.8269881E-2,-1.5721507E-1,-8.177807E-2,1.3620716E-1,4.085585E-2,2.24665E-1,9.103328E-2,2.545609E-1,2.7406567E-1,3.990758E-1,-2.5197482E-1,-4.4579938E-2,1.5836084E-2,1.3131534E-1,-1.9222929E-1,2.7169024E-3,-3.5614443E-1,-1.803898E-1,-6.091974E-1,-4.798762E-1,-3.0382773E-1,-4.5681372E-1,-2.21464E-1,-3.7767848E-1,-1.4145914E-1,-2.731888E-1,-3.318575E-1,-2.1671014E-1,-4.9075443E-2,-2.5669694E-1,-2.396618E-1,-1.3231243E-1,2.5746098E-2,-9.176725E-2,-2.8589252E-1,-1.2401708E-1,-9.08986E-2,1.7861556E-2,-2.7570415E-1,-4.9384063E-1,-3.500926E-1,-1.3414745E-1,3.2690805E-1,-7.8643404E-2,6.0375135E-2,2.0807648E-1,-5.415208E-2,2.5856805E-1,-2.1628964E-1,-5.625388E-2,-1.762116E-1,-2.9447282E-2,1.0269664E-1,3.585672E-1,-8.474565E-2,1.2617923E-1,1.6347957E-1,4.3826765E-1,3.805739E-2,1.8359622E-1,2.0040809E-1,3.0301487E-1,2.2531676E-1,3.5285553E-1,4.399059E-1,3.1972092E-1,-3.4118804E-1,-1.6261253E-1,-1.5991423E-1,-3.1682008E-3,-1.7822538E-2,1.0129989E-1,1.818926E-1,6.7517035E-2,-2.2988652E-1,-1.2258735E-1,-6.82029E-2,1.02678925E-1,-3.7461352E-1,1.2984462E-1,-2.7975106E-1,-9.230467E-2],"categories":[],"categories_nodes":[],"categories_segments":[],"categories_sizes":[],"default_left":[true,true,true,true,true,true,true,true,true,true,true,true,true,true,true,true,true,true,true,true,true,true,true,true,true,true,true,true,true,true,true,true,true,true,true,true,true,true,true,true,true,true,true,true,true,true,true,true,true,true,true,true,true,true,true,true,true,true,true,true,true,true,true,false,false,false,false,false,false,false,false,false,false,false,false,false,false,false,false,false,false,false,false,false,false,false,false,false,false,false,false,false,false,false,false,false,false,false,false,false,false,false,false,false,false,false,false,false,false,false,false,false,false,false,false,false,false,false,false,false,false,false,false,false,false,false,false],"id":2,"left_children":[1,3,5,7,9,11,13,15,17,19,21,23,25,27,29,31,33,35,37,39,41,43,45,47,49,51,53,55,57,59,61,63,65,67,69,71,73,75,77,79,81,83,85,87,89,91,93,95,97,99,101,103,105,107,109,111,113,115,117,119,121,123,125,-1,-1,-1,-1,-1,-1,-1,-1,-1,-1,-1,-1,-1,-1,-1,-1,-1,-1,-1,-1,-1,-1,-1,-1,-1,-1,-1,-1,-1,-1,-1,-1,-1,-1,-1,-1,-1,-1,-1,-1,-1,-1,-1,-1,-1,-1,-1,-1,-1,-1,-1,-1,-1,-1,-1,-1,-1,-1,-1,-1,-1,-1,-1,-1],"loss_changes":[1.4347522E5,1.5486906E4,2.4632148E4,9.441742E3,2.2937104E3,1.344207E4,7.5361304E3,4.2942812E3,1.6468457E3,9.5251E2,9.923008E2,3.3936313E3,9.494945E3,3.0306816E3,7.731782E2,2.4683047E3,1.256707E3,9.3635156E2,6.087806E2,8.825331E2,2.5800366E2,5.962689E2,1.6671982E2,1.4431979E3,1.0560564E3,2.790708E3,3.2353594E3,7.591433E2,1.107532E3,6.711177E2,5.034619E2,5.0046094E2,2.0832695E3,2.1692383E2,9.116582E2,4.869541E2,9.7530383E2,7.4092285E1,3.369423E2,1.3632776E2,3.0841965E2,2.0041113E2,8.92688E1,1.5054083E2,4.1779114E2,2.5342992E2,8.466977E1,8.48666E2,2.749004E2,5.188934E2,1.1526177E3,1.6019243E3,4.0231055E2,2.3293125E3,1.0183711E3,1.6277148E2,6.205027E2,3.4964114E2,8.4617285E2,1.7620508E2,1.6982935E2,3.4933447E2,2.4549799E2,0E0,0E0,0E0,0E0,0E0,0E0,0E0,0E0,0E0,0E0,0E0,0E0,0E0,0E0,0E0,0E0,0E0,0E0,0E0,0E0,0E0,0E0,0E0,0E0,0E0,0E0,0E0,0E0,0E0,0E0,0E0,0E0,0E0,0E0,0E0,0E0,0E0,0E0,0E0,0E0,0E0,0E0,0E0,0E0,0E0,0E0,0E0,0E0,0E0,0E0,0E0,0E0,0E0,0E0,0E0,0E0,0E0,0E0,0E0,0E0,0E0,0E0,0E0,0E0],"parents":[2147483647,0,0,1,1,2,2,3,3,4,4,5,5,6,6,7,7,8,8,9,9,10,10,11,11,12,12,13,13,14,14,15,15,16,16,17,17,18,18,19,19,20,20,21,21,22,22,23,23,24,24,25,25,26,26,27,27,28,28,29,29,30,30,31,31,32,32,33,33,34,34,35,35,36,36,37,37,38,38,39,39,40,40,41,41,42,42,43,43,44,44,45,45,46,46,47,47,48,48,49,49,50,50,51,51,52,52,53,53,54,54,55,55,56,56,57,57,58,58,59,59,60,60,61,61,62,62],"right_children":[2,4,6,8,10,12,14,16,18,20,22,24,26,28,30,32,34,36,38,40,42,44,46,48,50,52,54,56,58,60,62,64,66,68,70,72,74,76,78,80,82,84,86,88,90,92,94,96,98,100,102,104,106,108,110,112,114,116,118,120,122,124,126,-1,-1,-1,-1,-1,-1,-1,-1,-1,-1,-1,-1,-1,-1,-1,-1,-1,-1,-1,-1,-1,-1,-1,-1,-1,-1,-1,-1,-1,-1,-1,-1,-1,-1,-1,-1,-1,-1,-1,-1,-1,-1,-1,-1,-1,-1,-1,-1,-1,-1,-1,-1,-1,-1,-1,-1,-1,-1,-1,-1,-1,-1,-1,-1],"split_conditions":[3.035E-2,5E-1,1.69775E2,7.65E-3,7.15E-3,2.5E0,2.99165E2,5E-1,5E-1,1.7758499E2,1.3801001E2,1.6245E-1,9.375E-2,3.91E0,3.9201E2,2.5E0,2.355E0,3.5E0,2.5E0,2.5E0,5E-1,2.5E0,2.5033499E2,5E-1,5E-1,5E-1,5E-1,2.5E0,1.0185E-1,6.0150003E0,5E-1,2.75E0,1.34405E2,4.8725E1,1.16965E2,1.335E-2,1.8935501E2,2.005E-2,1.3529999E2,3.75E0,3.5E0,2.5401999E2,3.5E0,1.1940001E1,2.155E2,5.895E0,5E-1,3.25E0,1.3575E-1,2.18E2,4.3015E-1,3.5E0,5E-1,3.75E0,1.19805E2,5.0150003E0,8.335E-2,5E-1,2.23205E2,5E-1,3.5E0,3.1965E3,6.005E0,-6.091974E-2,-4.798762E-2,-3.0382773E-2,-4.5681372E-2,-2.21464E-2,-3.776785E-2,-1.41459135E-2,-2.731888E-2,-3.318575E-2,-2.1671014E-2,-4.9075442E-3,-2.5669694E-2,-2.396618E-2,-1.3231243E-2,2.5746098E-3,-9.1767255E-3,-2.8589252E-2,-1.2401708E-2,-9.08986E-3,1.7861556E-3,-2.7570415E-2,-4.9384065E-2,-3.500926E-2,-1.3414745E-2,3.2690804E-2,-7.86434E-3,6.0375137E-3,2.0807648E-2,-5.415208E-3,2.5856806E-2,-2.1628965E-2,-5.625388E-3,-1.762116E-2,-2.9447281E-3,1.0269664E-2,3.585672E-2,-8.474565E-3,1.2617923E-2,1.6347958E-2,4.3826766E-2,3.805739E-3,1.8359622E-2,2.0040808E-2,3.0301487E-2,2.2531677E-2,3.5285555E-2,4.3990593E-2,3.197209E-2,-3.4118805E-2,-1.6261254E-2,-1.5991423E-2,-3.1682008E-4,-1.7822537E-3,1.0129989E-2,1.818926E-2,6.7517036E-3,-2.2988653E-2,-1.22587355E-2,-6.82029E-3,1.0267893E-2,-3.746135E-2,1.2984462E-2,-2.7975107E-2,-9.2304675E-3],"split_indices":[7,9,25,7,7,4,25,19,19,25,25,7,7,26,25,4,26,4,4,4,19,4,25,9,6,9,9,4,7,8,19,5,25,25,25,7,25,7,25,5,26,25,4,18,2,8,19,5,7,2,7,4,6,26,25,8,7,19,25,19,11,25,8,0,0,0,0,0,0,0,0,0,0,0,0,0,0,0,0,0,0,0,0,0,0,0,0,0,0,0,0,0,0,0,0,0,0,0,0,0,0,0,0,0,0,0,0,0,0,0,0,0,0,0,0,0,0,0,0,0,0,0,0,0,0,0,0],"split_type":[0,0,0,0,0,0,0,0,0,0,0,0,0,0,0,0,0,0,0,0,0,0,0,0,0,0,0,0,0,0,0,0,0,0,0,0,0,0,0,0,0,0,0,0,0,0,0,0,0,0,0,0,0,0,0,0,0,0,0,0,0,0,0,0,0,0,0,0,0,0,0,0,0,0,0,0,0,0,0,0,0,0,0,0,0,0,0,0,0,0,0,0,0,0,0,0,0,0,0,0,0,0,0,0,0,0,0,0,0,0,0,0,0,0,0,0,0,0,0,0,0,0,0,0,0,0,0],"sum_hessian":[3.9629095E6,1.5245808E6,2.4383288E6,1.2149728E6,3.0960803E5,1.7460876E6,6.922412E5,8.22426E5,3.9254678E5,1.647476E5,1.4486044E5,3.4524297E5,1.4008446E6,5.3412356E5,1.5811762E5,5.230387E5,2.993873E5,2.6725697E5,1.2528982E5,1.3350606E5,3.1241525E4,9.6529445E4,4.833099E4,2.0862927E5,1.366137E5,4.8003006E5,9.208146E5,1.5033795E5,3.837856E5,9.115276E4,6.696487E4,1.492609E5,3.7377778E5,8.56069E4,2.1378042E5,1.7166669E5,9.559027E4,2.7674592E4,9.761523E4,2.7443799E4,1.06062266E5,1.8081703E4,1.3159821E4,1.7702443E4,7.882701E4,3.4133707E4,1.4197282E4,1.7173288E5,3.68964E4,4.8416938E4,8.8196766E4,3.2668344E5,1.5334662E5,6.0646694E5,3.143477E5,2.0423102E4,1.2991485E5,1.215453E5,2.6224028E5,6.719897E4,2.3953785E4,3.891322E4,2.8051652E4,4.1451805E4,1.078091E5,2.2757452E5,1.4620327E5,1.0080829E4,7.552606E4,9.297305E4,1.20807375E5,5.324621E4,1.1842047E5,5.8823555E4,3.6766723E4,1.7505643E4,1.0168949E4,4.948631E4,4.8128918E4,2.0464674E4,6.9791235E3,5.9879797E4,4.6182473E4,1.1395062E4,6.6866416E3,2.3250107E3,1.0834811E4,9.672728E2,1.673517E4,3.279729E4,4.6029715E4,3.1309385E4,2.824323E3,8.955868E3,5.2414136E3,6.123282E4,1.1050005E5,3.2065469E4,4.830928E3,1.958563E4,2.8831305E4,6.855988E4,1.9636879E4,2.0777212E5,1.1891132E5,7.241726E4,8.092936E4,3.7466053E5,2.3180638E5,2.0755225E5,1.0679545E5,1.0218667E4,1.0204435E4,3.4322285E4,9.559257E4,8.720265E4,3.4342645E4,1.4627569E5,1.1596459E5,4.3613625E4,2.3585346E4,1.4012611E4,9.941174E3,3.7488758E4,1.4244617E3,1.3181061E4,1.4870592E4],"tree_param":{"num_deleted":"0","num_feature":"27","num_nodes":"127","size_leaf_vector":"0"}},{"base_weights":[2.4161131E-10,-2.5208116E-1,1.3273558E-1,-2.9771283E-1,-6.347912E-2,1.792238E-1,-5.604951E-2,-3.474117E-1,-1.952217E-1,-1.24744065E-1,1.8207857E-2,6.4321436E-2,2.501806E-1,1.1644995E-2,-1.9886567E-1,-3.9716303E-1,-2.6003176E-1,-2.4632709E-1,-9.482269E-2,-9.816435E-2,-3.319611E-1,6.465961E-2,-9.7479776E-2,9.326676E-3,2.0300312E-1,4.1437402E-2,2.7509236E-1,-1.1096654E-1,4.7903143E-2,-1.4263774E-1,-2.7072647E-1,-4.9929518E-1,-3.5581014E-1,-3.5588875E-1,-2.2088377E-1,-3.5724947E-1,-2.1212032E-1,-1.5147068E-1,4.312189E-3,-2.3341592E-1,-5.7359044E-2,-4.28927E-1,-2.1325618E-1,5.206694E-2,3.6774358E-1,-1.4154862E-1,5.138357E-3,-4.4063665E-2,1.330451E-1,5.8147565E-2,2.2410478E-1,-7.09726E-3,1.9455306E-1,3.1540647E-1,1.6402729E-1,-3.0267176E-1,-7.992796E-2,2.9798415E-2,2.1018046E-1,-1.8558444E-1,1.974787E-2,-3.600271E-1,-1.9096075E-1,-5.8954304E-1,-4.6357206E-1,-3.1198892E-1,-5.0687075E-1,-3.8471678E-1,-2.4265745E-1,-1.3913721E-1,-2.7287748E-1,-4.1277957E-1,-2.763641E-1,-2.8132656E-1,-1.6695371E-1,-1.1493442E-1,-2.7249977E-1,1.13821566E-1,-1.0019352E-1,-2.8530613E-1,-1.2702024E-1,8.02344E-3,-9.793075E-2,-4.5226014E-1,-1.6948197E-2,-2.0222014E-1,-8.703119E-1,-7.488928E-2,8.07099E-2,7.893415E-1,3.241736E-1,-8.6957075E-2,-2.3192395E-1,-2.1614442E-2,4.7665632E-1,-1.3178094E-1,2.5289052E-4,1.971265E-1,3.754991E-2,1.280282E-1,-2.325436E-2,2.7790308E-1,1.489329E-1,-8.090539E-2,7.1554966E-2,1.084018E-1,2.6174667E-1,2.6503637E-1,4.1321257E-1,4.6259817E-2,2.2775365E-1,-4.2336243E-1,-2.2587909E-1,-2.2498316E-1,-4.22461E-2,-5.3825658E-2,6.1490756E-2,5.392949E-2,2.557719E-1,-2.2344106E-1,-1.1515438E-1,-5.9644017E-2,1.2698014E-1,-3.761027E-1,1.05328634E-1,-2.9935658E-1,-1.0509383E-1],"categories":[],"categories_nodes":[],"categories_segments":[],"categories_sizes":[],"default_left":[true,true,true,true,true,true,true,true,true,true,true,true,true,true,true,true,true,true,true,true,true,true,true,true,true,true,true,true,true,true,true,true,true,true,true,true,true,true,true,true,true,true,true,true,true,true,true,true,true,true,true,true,true,true,true,true,true,true,true,true,true,true,true,false,false,false,false,false,false,false,false,false,false,false,false,false,false,false,false,false,false,false,false,false,false,false,false,false,false,false,false,false,false,false,false,false,false,false,false,false,false,false,false,false,false,false,false,false,false,false,false,false,false,false,false,false,false,false,false,false,false,false,false,false,false,false,false],"id":3,"left_children":[1,3,5,7,9,11,13,15,17,19,21,23,25,27,29,31,33,35,37,39,41,43,45,47,49,51,53,55,57,59,61,63,65,67,69,71,73,75,77,79,81,83,85,87,89,91,93,95,97,99,101,103,105,107,109,111,113,115,117,119,121,123,125,-1,-1,-1,-1,-1,-1,-1,-1,-1,-1,-1,-1,-1,-1,-1,-1,-1,-1,-1,-1,-1,-1,-1,-1,-1,-1,-1,-1,-1,-1,-1,-1,-1,-1,-1,-1,-1,-1,-1,-1,-1,-1,-1,-1,-1,-1,-1,-1,-1,-1,-1,-1,-1,-1,-1,-1,-1,-1,-1,-1,-1,-1,-1,-1],"loss_changes":[1.3241042E5,1.1747344E4,2.2750543E4,5.59825E3,1.3307991E3,1.695893E4,4.9520234E3,3.2175547E3,1.8415283E3,8.368911E2,6.124432E2,6.0565713E3,6.687086E3,1.5448795E3,6.655034E2,1.9917188E3,1.00761914E3,9.023721E2,6.799021E2,7.432805E2,1.9874646E2,3.1033292E2,1.4765527E2,3.7560164E3,6.892471E2,1.01888806E3,5.1438438E3,4.7188464E2,7.879415E2,6.4446936E2,5.1496533E2,4.3792578E2,2.2220977E3,2.540791E2,8.103584E2,2.5167432E2,5.681836E2,3.4065576E2,5.0386084E2,1.7229749E2,2.7446216E2,9.138074E1,5.615738E1,2.8391083E2,5.9325775E1,1.1267355E2,1.23759224E2,1.5441018E3,1.0489707E3,1.631065E2,7.9592285E2,6.043637E2,1.9099976E2,4.152375E3,2.2961191E3,1.0232745E2,3.730903E2,6.3944336E2,1.9174255E2,1.9482983E2,1.6456471E2,2.5522852E2,3.5545703E2,0E0,0E0,0E0,0E0,0E0,0E0,0E0,0E0,0E0,0E0,0E0,0E0,0E0,0E0,0E0,0E0,0E0,0E0,0E0,0E0,0E0,0E0,0E0,0E0,0E0,0E0,0E0,0E0,0E0,0E0,0E0,0E0,0E0,0E0,0E0,0E0,0E0,0E0,0E0,0E0,0E0,0E0,0E0,0E0,0E0,0E0,0E0,0E0,0E0,0E0,0E0,0E0,0E0,0E0,0E0,0E0,0E0,0E0,0E0,0E0,0E0,0E0,0E0,0E0],"parents":[2147483647,0,0,1,1,2,2,3,3,4,4,5,5,6,6,7,7,8,8,9,9,10,10,11,11,12,12,13,13,14,14,15,15,16,16,17,17,18,18,19,19,20,20,21,21,22,22,23,23,24,24,25,25,26,26,27,27,28,28,29,29,30,30,31,31,32,32,33,33,34,34,35,35,36,36,37,37,38,38,39,39,40,40,41,41,42,42,43,43,44,44,45,45,46,46,47,47,48,48,49,49,50,50,51,51,52,52,53,53,54,54,55,55,56,56,57,57,58,58,59,59,60,60,61,61,62,62],"right_children":[2,4,6,8,10,12,14,16,18,20,22,24,26,28,30,32,34,36,38,40,42,44,46,48,50,52,54,56,58,60,62,64,66,68,70,72,74,76,78,80,82,84,86,88,90,92,94,96,98,100,102,104,106,108,110,112,114,116,118,120,122,124,126,-1,-1,-1,-1,-1,-1,-1,-1,-1,-1,-1,-1,-1,-1,-1,-1,-1,-1,-1,-1,-1,-1,-1,-1,-1,-1,-1,-1,-1,-1,-1,-1,-1,-1,-1,-1,-1,-1,-1,-1,-1,-1,-1,-1,-1,-1,-1,-1,-1,-1,-1,-1,-1,-1,-1,-1,-1,-1,-1,-1,-1,-1,-1,-1],"split_conditions":[2.245E-2,5E-1,1.99005E2,4.5499997E-3,5.55E-3,9.315E-2,3.01905E2,5E-1,5E-1,2.1717499E2,1.5142499E2,5E-1,3.25E0,3.5E0,3.9201E2,2.5E0,2.995E0,2.5E0,3.5E0,2.9650002E0,5E-1,1.055E2,4.5E0,3.5E0,2.5E0,5E-1,1.43005E2,2.5E0,6.0150003E0,6.085E0,2.5E0,2.75E0,1.69455E2,1.45E1,1.09604996E2,1.385E-2,1.085E-2,1.3710501E2,1.7853E2,3.75E0,9.0715E1,8.65E1,-3.556295E1,2.5E0,1.2705E1,2.21005E2,2.8161E4,2.5E0,1.40985E2,1.05E1,1.15265E2,5E-1,2.875E0,3.99E0,3.5E0,4.885E0,6.5349996E-2,7.935E-2,1.15E1,5E-1,3.5E0,3.188595E3,5.9849997E0,-5.8954306E-2,-4.6357207E-2,-3.1198893E-2,-5.0687075E-2,-3.847168E-2,-2.4265746E-2,-1.3913721E-2,-2.728775E-2,-4.1277956E-2,-2.7636409E-2,-2.8132657E-2,-1.669537E-2,-1.1493443E-2,-2.7249977E-2,1.1382157E-2,-1.0019353E-2,-2.8530613E-2,-1.2702025E-2,8.02344E-4,-9.793076E-3,-4.5226015E-2,-1.6948198E-3,-2.0222014E-2,-8.703119E-2,-7.4889283E-3,8.0709895E-3,7.8934155E-2,3.241736E-2,-8.695708E-3,-2.3192396E-2,-2.1614442E-3,4.7665633E-2,-1.3178094E-2,2.5289051E-5,1.971265E-2,3.7549909E-3,1.280282E-2,-2.3254359E-3,2.7790308E-2,1.4893291E-2,-8.09054E-3,7.1554966E-3,1.084018E-2,2.6174668E-2,2.6503637E-2,4.132126E-2,4.6259817E-3,2.2775365E-2,-4.2336244E-2,-2.2587908E-2,-2.2498315E-2,-4.22461E-3,-5.382566E-3,6.1490755E-3,5.392949E-3,2.5577191E-2,-2.2344107E-2,-1.1515438E-2,-5.9644016E-3,1.2698014E-2,-3.761027E-2,1.0532863E-2,-2.9935658E-2,-1.0509383E-2],"split_indices":[7,9,25,7,7,7,25,19,19,25,25,9,5,4,25,4,26,4,4,26,19,24,4,4,4,9,25,4,8,8,11,5,25,0,25,7,7,25,25,5,25,24,17,4,18,25,10,4,25,12,25,6,26,26,4,8,7,7,12,19,11,25,8,0,0,0,0,0,0,0,0,0,0,0,0,0,0,0,0,0,0,0,0,0,0,0,0,0,0,0,0,0,0,0,0,0,0,0,0,0,0,0,0,0,0,0,0,0,0,0,0,0,0,0,0,0,0,0,0,0,0,0,0,0,0,0,0],"split_type":[0,0,0,0,0,0,0,0,0,0,0,0,0,0,0,0,0,0,0,0,0,0,0,0,0,0,0,0,0,0,0,0,0,0,0,0,0,0,0,0,0,0,0,0,0,0,0,0,0,0,0,0,0,0,0,0,0,0,0,0,0,0,0,0,0,0,0,0,0,0,0,0,0,0,0,0,0,0,0,0,0,0,0,0,0,0,0,0,0,0,0,0,0,0,0,0,0,0,0,0,0,0,0,0,0,0,0,0,0,0,0,0,0,0,0,0,0,0,0,0,0,0,0,0,0,0,0],"sum_hessian":[3.9572562E6,1.3649839E6,2.5922725E6,1.0990674E6,2.659165E5,2.0800591E6,5.1221338E5,7.401563E5,3.58911E5,1.5195228E5,1.139642E5,7.941198E5,1.2859394E6,3.475001E5,1.6471327E5,4.7162478E5,2.6853153E5,2.3784239E5,1.210686E5,1.3467855E5,1.7273734E4,8.13146E4,3.2649598E4,5.686289E5,2.2549092E5,1.371043E5,1.148835E6,7.930799E4,2.6819212E5,9.240973E4,7.230355E4,1.3592075E5,3.3570403E5,7.786494E4,1.9066661E5,5.6056926E4,1.8178547E5,7.7043586E4,4.4025023E4,3.1213814E4,1.03464734E5,9.506E3,7.7677344E3,7.807201E4,3.242599E3,2.2840486E4,9.809111E3,3.9721328E5,1.7141562E5,2.8671916E4,1.96819E5,1.0410576E5,3.299853E4,8.4288506E5,3.0595E5,1.1050075E4,6.8257914E4,2.4127506E5,2.691705E4,7.308147E4,1.9328254E4,3.411125E4,3.8192297E4,3.8540285E4,9.738047E4,2.6021988E5,7.5484164E4,6.206194E4,1.5802996E4,7.412618E4,1.1654042E5,3.323563E4,2.2821297E4,7.1786234E4,1.0999923E5,5.918022E4,1.7863365E4,2.1497816E4,2.2527207E4,2.0979988E4,1.0233827E4,3.961876E4,6.3845973E4,8.996378E3,5.096229E2,7.640707E3,1.270271E2,1.4371328E4,6.3700676E4,3.0211487E2,2.9404841E3,1.4240453E4,8.600033E3,9.283351E3,5.257609E2,1.3332217E5,2.638911E5,1.0257939E5,6.8836234E4,1.5427438E4,1.3244477E4,1.1471683E5,8.210217E4,5.3706734E4,5.0399027E4,1.4460647E4,1.8537883E4,5.563623E5,2.8652275E5,1.0742619E5,1.9852381E5,4.295137E3,6.754938E3,1.4074311E4,5.4183605E4,6.630929E4,1.7496578E5,6.0804214E3,2.0836629E4,4.753105E4,2.555042E4,1.1106066E4,8.2221875E3,3.2972418E4,1.1388295E3,1.6880445E4,2.1311854E4],"tree_param":{"num_deleted":"0","num_feature":"27","num_nodes":"127","size_leaf_vector":"0"}}]},"name":"gbtree"},"learner_model_param":{"base_score":"5E-1","num_class":"0","num_feature":"27"},"objective":{"lambda_rank_param":{"fix_list_weight":"0","num_pairsample":"1"},"name":"rank:pairwise"}},"version":[1,5,0]}